digraph Tree {
node [shape=box, fontname="helvetica"] ;
edge [fontname="helvetica"] ;
0 [label="MMSE_time <= 1.5\ngini = 0.387\nsamples = 160\nvalue = [118, 42]"] ;
1 [label="AGE <= 85.5\ngini = 0.495\nsamples = 67\nvalue = [37, 30]"] ;
0 -> 1 [labeldistance=2.5, labelangle=45, headlabel="True"] ;
3 [label="Community_Affairsl <= 1.5\ngini = 0.477\nsamples = 61\nvalue = [37, 24]"] ;
1 -> 3 ;
5 [label="AGE <= 64.0\ngini = 0.494\nsamples = 36\nvalue = [16, 20]"] ;
3 -> 5 ;
7 [label="gini = 0.0\nsamples = 6\nvalue = [0, 6]"] ;
5 -> 7 ;
8 [label="gini = 0.498\nsamples = 30\nvalue = [16, 14]"] ;
5 -> 8 ;
6 [label="gini = 0.269\nsamples = 25\nvalue = [21, 4]"] ;
3 -> 6 ;
4 [label="gini = 0.0\nsamples = 6\nvalue = [0, 6]"] ;
1 -> 4 ;
2 [label="gini = 0.225\nsamples = 93\nvalue = [81, 12]"] ;
0 -> 2 [labeldistance=2.5, labelangle=-45, headlabel="False"] ;
}